34 128
1 -0.009609576 0.029374344 -0.025983887 0.25728226 0.06569538 -0.08180778 0.36084962 -0.03887577 -0.25055444 0.28603843 0.3055223 -0.18704301 0.009982613 0.07442204 0.120422244 -0.1326138 0.18678004 0.21473369 -0.045287084 0.20170435 0.12915143 0.43892294 -0.09198443 0.051633053 -0.08845116 0.1000454 -0.26323763 0.10812034 -0.047199205 -0.06883047 -0.410938 0.16559114 0.17035277 -0.11769228 -0.08824505 -0.19091353 0.17279872 0.054302067 0.008035962 0.05290665 -0.14253683 0.17212911 -0.07510888 -0.06875417 0.042165957 0.20399196 -0.3312614 0.07531839 -0.022656899 0.38048273 0.0032309578 0.40709025 0.2963205 -0.08492832 -0.027939958 0.012614162 0.10214337 -0.099381045 0.08811305 0.048597395 0.20126192 -0.25312266 0.02829903 0.020512005 0.08568527 -0.29193103 0.02066273 0.1036793 -0.039562546 0.006890378 -0.042130284 0.20042206 -0.03854094 0.002842584 0.06915789 -0.09750555 -0.07119476 0.20669192 -0.24847145 0.1972626 -0.03515019 -0.10263649 -0.2136226 0.24533974 0.01479333 -0.044477377 0.43080908 -0.06324538 0.22377743 0.34241718 -0.09137076 -0.15343736 -0.31746417 -0.00795009 0.112250686 0.081959225 -0.16541193 -0.3150581 -0.1444969 -0.037887104 -0.13121523 -0.2752907 0.17368081 -0.03491011 -0.05123918 -0.03093571 0.15931013 0.066255234 -0.010375676 0.017560344 0.21439384 0.0043404317 0.12464326 -0.0563795 -0.22213906 0.0054263016 -0.035198458 0.2306089 -0.056557532 0.18135808 -0.026835065 -0.031788815 0.07841067 0.07737972 0.045247305 -0.1833979 -0.15107144 0.22123848
3 0.055436265 -0.02492072 0.035721615 0.123113334 0.11652281 -0.11313387 0.30309218 -0.04910333 -0.054158416 0.2826417 0.31166723 -0.03799375 0.111886606 0.024288677 0.074169695 -0.048296943 0.11840247 0.19794334 0.045394894 0.17226988 0.17690831 0.3239851 -0.110104784 -0.088205166 -0.18334776 0.13151582 -0.2778138 0.033466805 0.11537723 0.05717396 -0.40633485 0.22199754 0.12881628 0.048285637 -0.04612079 -0.080641285 0.12566343 0.08131805 0.07293212 0.036280844 -0.017150933 0.19250664 -0.056679122 -0.116516754 0.01897979 0.12968498 -0.2896781 -0.047179367 -0.09552923 0.24218504 0.14146976 0.1687485 0.15426932 -0.09692078 -0.04009885 -0.064061806 0.05224387 -0.04942292 0.026571875 -0.09223516 0.17366467 -0.23363535 -0.0031102595 0.004337116 0.058022637 -0.33728546 -0.013318398 0.12472332 0.017643975 -0.053101815 -0.12525696 0.19944733 -0.055178702 0.0048372988 -0.0077532786 -0.12586619 -0.02137847 0.16481046 -0.26250663 0.19449368 -0.09611196 -0.13538142 -0.21026656 0.21223599 0.16544262 -0.14722571 0.48834634 -0.18304032 0.31541917 0.4217513 -0.14534834 -0.16876513 -0.4337147 -0.05274579 0.11329621 -0.006911067 -0.065516174 -0.37574852 -0.01901241 -0.1139385 -0.053427693 -0.23359814 0.17918861 -0.26761866 -0.1515112 -0.04198718 0.03574698 0.1446906 0.08789766 0.13085473 0.14280365 0.1069726 0.09552556 -0.11614418 -0.27835235 0.043467827 -0.07503794 0.26103234 -0.01227948 0.16765954 -0.03380788 -0.03326773 0.0031611533 0.06321733 -0.06269801 -0.11533506 -0.15253729 0.19034638
9 0.13188984 -0.04306024 0.043313596 0.03444391 0.120922096 -0.17067215 0.36867654 -0.044011887 -0.057540845 0.25940698 0.368041 -0.05231075 0.018769775 0.21318243 0.20176557 0.06924702 0.24921454 0.07749127 -0.062890664 0.18729937 0.28904542 0.35461608 -0.17705117 -0.07997813 -0.19824769 0.14639162 -0.33828008 -0.07214988 0.14487429 0.00045526167 -0.47985083 0.14962949 0.20192741 0.060392708 -0.12215178 -0.008485585 0.14493936 -0.025363341 0.04069315 0.04188246 -0.11716424 0.22854562 0.055258073 -0.15638472 -0.09335635 0.091647916 -0.42503026 -0.050843976 -0.060982898 0.22075348 0.18059006 0.18316509 0.21647574 -0.19084701 -0.016431803 -0.064453885 0.1470051 -0.023346351 0.03172915 -0.14490815 0.1506769 -0.2414552 -0.22975892 -0.044537537 0.114591956 -0.37543914 0.066678196 0.17638378 -0.09083756 0.0006759663 -0.0137115875 0.22677442 -0.13803823 -0.07419496 0.058690134 -0.10357133 -0.10197322 0.10244911 -0.2567377 0.1270875 -0.013343479 -0.24402153 -0.15388139 0.31944376 0.106437735 -0.16047974 0.2796064 -0.19096799 0.22013065 0.30454108 -0.10360742 -0.13562426 -0.4051157 -0.036821194 0.1650852 -0.04239829 -0.10112019 -0.3184449 -0.13267887 -0.09896252 0.060989633 -0.1462174 0.12437131 -0.200211 -0.013463909 -0.029562086 0.13010462 0.116301134 0.1515265 0.062042113 0.13207042 0.12079771 0.07922795 -0.18540947 -0.17203777 0.09659218 -0.18405148 0.27143592 -0.0007034871 0.0477548 0.030523298 0.012902231 0.00015558724 0.11183706 -0.05450614 0.019854562 -0.12211159 0.18476664
26 0.2788183 -0.12021055 0.57680476 0.09794612 -0.17539766 -0.5772468 -0.20594183 0.135443 0.06623442 -0.34266278 0.7691415 0.2680267 -0.108187415 -0.6273852 0.32393035 -0.007133378 -0.02952762 -0.03666971 -0.20451649 0.058549736 0.17175308 0.41022107 0.2816424 -0.12504901 -0.46842304 0.36739358 -0.54085547 0.2556064 -0.115281 0.013866965 -0.45998257 -0.10825044 -0.11039399 -0.030707488 0.15665321 -0.16156289 0.29032424 -0.26843938 0.5037424 0.23999065 0.06607648 0.11338356 0.19670041 -0.008394118 -0.0042750016 -0.063913286 0.38844988 -0.15824531 -0.0077627245 0.07254825 0.57940096 -0.4435942 0.34284946 0.25643072 0.3150373 0.1383125 0.24101882 0.1453927 -0.5167938 0.21864812 0.16596602 -0.42156667 0.04752254 0.09144041 0.2663791 -0.5195898 0.48032552 0.40999252 0.07308048 -0.3167582 0.35768282 -0.2392759 -0.26757497 -0.4005065 -0.102373265 -0.27600017 0.10739499 -0.5549055 0.10936382 0.3013766 0.37254724 -0.45376852 0.15491168 0.81144285 0.09446474 0.516164 0.09422863 0.20547356 0.24483049 0.37354076 -0.24840288 0.19759168 0.09122064 0.23768376 0.4148178 -0.022993505 -0.18143386 -0.39596283 0.45035496 -0.5292334 -0.41635138 -0.3857067 0.68427783 0.16575654 -0.3986858 -0.4547412 0.5573978 0.053923037 0.031934354 -0.5217277 0.08391299 -0.013248882 -0.0018701877 0.39425573 -0.008559915 -0.10568958 -0.1842744 0.24373542 0.24988808 -0.048972704 -0.52518994 -0.13632828 0.22540776 -0.09970174 -0.16743848 -0.45933837 0.049241927 -0.27938074
6 0.08138079 -0.006703747 0.14820176 -0.029286575 -0.03399316 -0.19768737 0.27519354 0.02050262 0.12531799 -0.16600183 0.21754088 -0.13314815 0.15070726 -0.31865692 0.38941163 -0.19783646 -0.09607378 0.1249964 -0.34386706 -0.23832686 -0.07060289 0.21385762 0.10510494 0.041224495 -0.37523672 0.12927158 0.33756256 0.4011224 0.45189485 -0.012631786 -0.71621966 0.043343555 -0.3048988 -0.111387774 -0.44322336 0.41462877 0.33932444 0.3550377 0.48792955 -0.25082496 0.08563181 0.14987059 0.09528093 -0.12646873 0.1649225 0.077141136 0.027744703 -0.725124 0.2497367 0.014948778 0.3801839 -0.25121546 0.29393595 0.22444476 0.18961763 0.027915722 0.13408291 -0.25155243 -0.36843103 -0.17503296 0.16718069 0.0038447634 -0.004160637 0.123478755 0.005224459 -0.101949655 -0.020975921 0.09639726 -0.1750484 -0.25204533 0.51522386 0.10553359 -0.5223669 0.09365246 0.12978896 0.0030984571 0.09658832 -0.1686132 0.25164855 0.5956491 0.3120888 -0.18904349 0.34818208 0.1849509 0.080940865 -0.023963215 0.3004714 -0.32155403 0.48028848 -0.18169531 -0.056429338 -0.07924635 0.18796778 0.18487322 0.329419 0.29750878 -0.48807475 -0.55896884 0.039485022 -0.31416476 -0.16476522 0.1608632 0.24806495 0.25953436 0.17850122 -0.116471544 0.25178057 -0.43078595 0.09327606 0.09571156 0.208563 0.30750337 0.21738948 0.47482657 0.20119332 -0.06834907 -0.0025671024 0.24350704 0.43020338 0.2680689 0.34309235 0.2493893 0.08635463 0.392469 0.30329555 -0.5632405 0.022081157 -0.19182566
33 0.10912356 -0.19482772 -0.0060543893 0.06634775 0.19269201 0.17301472 -0.19491486 -0.118096754 -0.060454685 0.29273388 0.091221906 -0.32277247 -0.042280782 0.05175601 -0.12998682 -0.3644594 0.09445353 0.05952664 -0.39229336 -0.13293491 -0.0040343925 0.29104742 0.16780178 0.21126539 -0.15064079 0.18900216 -0.26860666 -0.15469117 0.018368281 -0.21918803 -0.42472357 0.34175065 -0.04403959 0.12380851 -0.0017556917 -0.1449199 0.31582466 0.04446745 0.19863723 0.32205907 -0.094101906 -0.14616163 -0.05290795 -0.1933997 -0.19672549 -0.021242876 -0.18325269 -0.07806708 -0.023596378 0.23055466 -0.11818223 0.2630038 0.41474244 0.16655865 -0.25796095 0.15494473 0.0057365973 -0.10110374 -0.077113025 0.3087432 0.4306593 -0.2409341 0.23489606 0.4119736 0.2001674 -0.1495124 0.054411236 0.057275742 -0.16547926 -0.31963506 0.008073385 0.038036264 -0.027842132 -0.043216597 0.13554111 -0.39097077 -0.24291703 0.11238577 -0.19112344 0.29123986 -0.021169737 -0.17850558 -0.06714748 0.13901995 -0.090484135 0.28284186 0.20925751 0.22055216 0.036513947 0.40543002 -0.0029102461 0.027348083 -0.028399594 0.020802185 0.0754862 -0.0022976415 -0.28814843 -0.41545552 -0.18893805 -0.112045236 0.011493499 -0.25609085 -0.115748905 0.15826084 -0.062422656 -0.21824214 -0.048854593 -0.03216128 0.2677989 0.046404626 -0.023777252 -0.050349772 0.5141671 0.17019983 -0.24037659 -0.04778045 -0.2715323 0.2655962 0.11721451 0.16756362 0.0055000465 -0.22012575 0.017302642 0.35628477 0.039476197 -0.05331215 -0.035034135 0.1117478
21 0.14706284 0.23297496 0.48613438 -0.40608275 0.10543062 -0.49796635 -0.21666753 0.35590017 0.019684572 0.08674011 0.27541864 -0.23898625 -0.43197227 -0.26371163 -0.09382755 0.011413272 0.35827944 0.13086882 -0.044040184 0.6279058 0.24375068 -0.06272989 0.11720497 0.038626816 -0.51118547 0.21013893 -0.297733 0.15834832 0.23054755 -0.3486022 -0.37549862 0.26815218 -0.5112268 0.06966405 0.13274048 0.4348236 0.48181683 0.33590445 0.20520674 0.1509447 -0.1841233 0.20313576 0.24229966 -0.18854505 0.17471753 0.13362746 0.40492877 -0.4179458 -0.4974768 0.119619094 0.029129682 0.13131312 0.6232677 0.2382238 0.55526704 -0.07438093 0.38361332 0.34791368 -0.042247877 -0.61478597 0.27140704 -0.28055045 0.2486112 -0.19650818 0.5158894 0.010650244 0.16094291 0.1811459 -0.3935717 -0.2681742 0.31556332 -0.26018023 -0.24703145 -0.023964362 0.06812017 -0.25967804 -0.38304496 -0.37023547 -0.18301296 0.39177498 0.15219094 -0.55086416 0.038508795 0.026229098 0.36162728 0.19997172 0.29361033 -0.136505 0.26136026 0.32354894 -0.20649686 -0.1304068 0.1720667 0.17183183 0.050404754 0.39562672 -0.4239655 -0.53085285 0.34026715 -0.4459123 -0.51743186 0.0044888444 -0.12258643 -0.0037763251 0.22528209 -0.1138185 -0.11707271 -0.3164381 -0.34122923 -0.40887874 -0.25278595 0.050132688 0.210531 -0.19992912 0.34321612 -0.31943524 0.3154153 0.27876 0.15736273 0.033403516 0.033375625 -0.12150507 -0.24838255 -0.083851166 -0.02906705 -0.2803428 0.48172468 0.21388315
15 0.18615003 0.31440142 0.50132895 -0.42113894 0.04569379 -0.5324934 -0.20927842 0.4077161 -0.04976081 0.088632055 0.25153854 -0.16215797 -0.38983917 -0.23792265 -0.003471814 -0.051443323 0.34588975 0.15415795 -0.14994693 0.6036145 0.2030693 -0.10778233 0.1526099 0.018841373 -0.47070855 0.20571943 -0.31494707 0.13987967 0.3101769 -0.33222988 -0.5323289 0.39203483 -0.4444764 -0.02685505 0.14668126 0.38265845 0.44499987 0.39858237 0.0839895 0.20334491 -0.1184935 0.2094138 0.21712409 -0.11829098 0.12118996 0.17866665 0.24360058 -0.42468372 -0.40626195 0.18014541 0.02711685 0.18957125 0.63524127 0.21369827 0.45262015 0.017944338 0.31372446 0.38614258 0.01492324 -0.56233066 0.22961059 -0.20508988 0.20259008 -0.1568632 0.4190025 -0.013939281 0.17165138 0.13052264 -0.41083112 -0.34976512 0.23570123 -0.2582711 -0.20075625 -0.1336149 0.084429435 -0.22388813 -0.39603302 -0.40488815 -0.20725894 0.3132672 0.1873818 -0.5449282 0.124214165 0.03919587 0.38862476 0.1605749 0.2618859 -0.06768939 0.25509617 0.27005216 -0.30758214 -0.099182636 0.24532962 0.24487679 -0.11108174 0.45361218 -0.2932763 -0.44097817 0.41212833 -0.5295654 -0.5435004 0.022665942 -0.036757298 0.027342442 0.26738244 -0.18991607 -0.016765058 -0.34757462 -0.36078882 -0.40942433 -0.24234267 0.13371533 0.23762035 -0.23245881 0.3569421 -0.3761285 0.33127654 0.2640464 0.23194961 0.11571767 0.0816125 -0.18337895 -0.1953893 -0.123562045 -0.057581317 -0.2835806 0.5018646 0.13039955
4 -0.01605781 -0.052930225 -0.15013207 0.2584292 0.1782596 0.056563474 0.09718689 -0.10834816 -0.07465115 0.37478378 0.16786046 -0.17849493 0.08413445 0.0006028927 0.07974239 -0.22488734 0.15755025 0.14174195 -0.17244144 0.18922618 -0.08113066 0.27265126 -0.06824648 0.085457 -0.19817953 0.11548232 -0.2620388 -0.044804085 -0.049917962 -0.13803567 -0.3207606 0.22728573 0.049609933 0.04620136 0.02208191 -0.023844672 0.14783758 0.07418958 0.12834243 0.22316274 -0.12348674 0.10776156 -0.00870363 -0.102054596 0.0014513353 0.12009315 -0.27181143 0.10700347 -0.021510087 0.37619752 0.031624548 0.3108433 0.38076425 -0.15033327 -0.14951476 0.14088553 -0.047547977 -0.032433856 0.10991778 0.1644448 0.18012291 -0.15964447 0.033200167 0.25058135 0.16424635 -0.24659494 0.06727784 0.030262789 -0.04824876 -0.11463833 -0.11135352 0.12717623 0.0462845 -0.067049354 0.12007125 -0.23092203 0.00062851387 0.25964162 -0.21916038 0.33628756 -0.041781057 -0.14384045 -0.22402197 0.19428453 -0.032252155 -0.06786628 0.45917845 0.073088534 0.23845305 0.2949481 0.011360647 -0.19095232 -0.31093276 -0.055683408 0.06792846 0.0392488 -0.2316134 -0.43843824 -0.089938916 -0.15236561 -0.10772352 -0.3404044 0.14993638 -0.0062941313 -0.08791498 -0.015874697 0.07102781 0.031314317 0.11317026 0.13149294 0.10342157 0.12474403 0.24509291 -0.05735665 -0.33923638 -0.09736881 -0.19065018 0.12542929 -0.03334305 0.23878849 -0.041046225 -0.024238627 0.032476228 0.12958984 0.015269593 -0.03956599 0.021658698 0.10151724
10 0.20847914 0.05735828 0.02684446 -0.0041172225 0.1855402 -0.19353886 0.2210314 0.0013325147 -0.008669844 0.13721086 0.28634846 -0.033193044 0.018768745 0.20682769 0.3483705 0.20983014 0.31422466 0.031076383 -0.026121642 0.2927009 0.2700519 0.37239283 -0.049952768 -0.09734101 -0.2519156 0.3114117 -0.2031167 -0.17280954 0.14214063 0.03325756 -0.50086546 0.06800117 0.121139415 0.24994811 -0.2827714 -0.008419389 0.121110715 0.0034718004 -0.020737784 -0.09050163 -0.2341446 0.14894326 0.2110426 -0.12306705 -0.15227656 -0.07380408 -0.37550887 -0.11236585 -0.116732076 0.116581224 0.2464722 -0.0526749 0.2730378 0.007220411 -0.062031 -0.076824844 0.21667726 0.010806309 -0.08865869 -0.28490624 0.00887463 -0.13842545 -0.2144278 -0.24874935 0.2009585 -0.37487757 0.12837523 0.18537158 -0.09251301 -0.04052131 0.09457254 0.3118794 -0.20428666 -0.08814786 -0.037760314 0.073261976 -0.17898175 0.026948191 -0.45747215 0.14809373 -0.06891973 -0.29772952 -0.13910641 0.27683422 0.016782744 -0.36846212 0.25793588 -0.24362679 0.17987491 0.30893615 -0.14717413 -0.3089516 -0.48706368 -0.13809976 0.24481055 0.01418962 -0.06680959 -0.2549085 0.06752951 -0.29153216 0.17379327 -0.33666763 0.1629577 -0.25134322 -0.033728354 -0.09935824 0.2362925 0.2742552 0.08913155 0.11779337 0.1285509 0.21843193 0.11385221 -0.1704054 -0.21076624 0.10970456 -0.3131009 0.26012465 0.22546515 0.031519115 0.054029107 -0.069141425 0.0143820625 0.04896763 0.05905667 -0.11043545 -0.19537236 0.32211205
2 -0.030045735 -0.0617899 -0.075954296 0.28370818 0.1042998 -0.025951184 0.32417232 -0.034202132 -0.1465993 0.20356078 0.18033727 -0.10549356 0.07764766 -0.0016494442 0.14719364 -0.1295183 0.1963501 0.21561906 -0.032040033 0.27250323 0.028777227 0.32866332 -0.12572114 -0.02431606 -0.13771574 0.045327336 -0.26795733 -0.016772358 -0.002764204 -0.05305672 -0.30378565 0.172552 0.12906045 0.0047750804 0.011946453 -0.053117324 0.14719863 0.027709898 0.009506204 0.15921201 -0.068175174 0.23366868 0.053281337 -0.03912556 0.067199245 0.2011256 -0.3847979 0.020837273 0.009741128 0.3528051 0.11183849 0.3726432 0.42047566 -0.15302956 -0.036441628 0.047846917 -0.024825444 -0.0051007313 0.14450045 -0.032130335 0.24526499 -0.31392172 0.02939416 0.18006217 0.075893454 -0.3691409 0.033112485 0.13906045 -0.017917173 -0.06869706 -0.058921963 0.10243622 -0.041246053 -0.015818464 0.10562494 -0.12914577 0.0028791253 0.12880726 -0.22060566 0.23526745 0.030294469 -0.11165119 -0.19044927 0.30083603 0.089420065 -0.058365352 0.43637642 0.034660585 0.28994444 0.30846795 0.0029311448 -0.12412379 -0.32372278 0.0042913137 0.15497562 0.121888936 -0.16139191 -0.31360236 -0.08400002 -0.12773423 -0.017579865 -0.31979093 0.23071663 -0.11447782 -0.07604773 0.06503094 0.121399425 0.13913348 0.10683448 0.050828032 0.22431867 0.15216535 0.15779056 -0.09946746 -0.26066625 -0.056154717 -0.0038261998 0.10679262 -0.070716605 0.19243294 -0.02076002 0.07222796 0.0443012 0.062641114 0.013710196 -0.08813508 -0.022731483 0.16023827
14 0.18035775 -0.12693837 0.11363341 -0.032867827 0.010251363 -0.25392705 0.31710544 0.05321446 0.029140977 0.25860855 0.38824347 -0.052277688 0.1591276 0.16546635 0.20259842 -0.033226803 0.08180011 0.15023233 0.09202529 0.16044706 0.23481964 0.3545587 -0.24972335 -0.08061114 -0.13577428 0.14765029 -0.34184352 -0.06350768 0.28493473 0.18630314 -0.47047383 0.30371457 0.25450274 0.08714489 -0.0332097 -0.04695808 0.2666116 0.09347418 0.01608568 0.027054066 0.05475118 0.28919974 0.12986019 -0.0642546 -0.023577614 0.017998079 -0.47352666 -0.111353375 0.09719422 0.18451777 0.23721428 0.1633462 0.122823484 -0.19083244 -0.025985787 0.020371098 0.10521321 0.059501745 0.03173438 -0.16815382 0.13986504 -0.3604163 -0.13039479 -0.08576849 0.14286688 -0.3333366 -0.01965269 -0.017996803 0.038431294 -0.09152648 -0.068422884 0.12299841 -0.1670143 0.020148322 0.00482266 -0.24324238 0.014085148 0.07991156 -0.17160769 0.17824417 -0.09737833 -0.2354108 -0.20440443 0.23986062 0.17373353 -0.04841752 0.40157285 -0.1292324 0.2670753 0.5143707 -0.19246878 0.007579496 -0.38289055 0.007506791 0.12460192 0.030112162 -0.13632494 -0.33782816 -0.0847791 -0.0069211503 -0.008171813 -0.09251569 0.13393635 -0.29330194 -0.13346349 0.03905736 -0.012075283 0.113867 0.04098941 0.16780323 0.22433153 0.14772867 0.042448837 -0.11291648 -0.24312489 0.09717501 -0.15876731 0.21462578 -0.021579977 0.124885425 -0.053194795 -0.15977998 -0.08789044 0.04829187 -0.07657791 -0.034903128 -0.21012747 0.18879429
34 0.17369474 -0.19470307 -0.027021477 0.19631442 0.30276957 0.060999565 -0.12269749 0.0146325575 -0.033146206 0.2837384 -0.021606937 -0.39163095 -0.01624367 -0.15185891 -0.16665795 -0.38229424 0.19571525 0.20116904 -0.4195545 -0.026234409 0.068466514 0.23190472 0.37480214 0.2493212 -0.10679413 0.103549495 -0.20646602 -0.052635737 0.12260388 -0.27733138 -0.37960443 0.3548749 -0.12585108 0.121162824 -0.09790147 -0.17047487 0.22583017 -0.07719404 0.2518976 0.41276905 -0.00977503 -0.15938593 -0.074012674 -0.21442151 -0.24361572 0.033179317 -0.0559863 -0.059340302 -0.07055418 0.14509135 -0.1899883 0.106364764 0.4697329 0.29804385 -0.2684048 0.16988216 -0.10010763 -0.16006953 -0.116137415 0.31854182 0.4940724 -0.07924439 0.36435947 0.534385 0.17719035 -0.33197916 0.07471716 0.093748875 -0.05283801 -0.26464176 0.006182116 0.06164668 -0.046779603 -0.03398888 0.07541297 -0.4532129 -0.29987577 0.13418941 -0.26082936 0.4015153 0.0008293925 -0.12867755 -0.0095800515 0.053702842 0.11566329 0.35221085 0.20008108 0.24420586 0.07712382 0.41103598 0.11277895 -0.121781975 -0.005994584 0.050518457 0.08025987 -0.051841944 -0.19679278 -0.48162055 -0.1137444 -0.12250492 0.077863835 -0.2867647 -0.10970222 0.057986017 -0.038471367 -0.25691968 -0.08225065 0.018911157 0.348096 0.04702708 -0.039416593 -0.076786 0.49624464 0.20477805 -0.23310411 -0.1339562 -0.10043773 0.231426 0.18266925 0.12007315 -0.10467222 -0.18233737 -0.007871083 0.32478547 0.0640392 -0.08640792 -0.033766773 0.07791221
17 0.09802247 0.05514119 0.15327387 0.08423408 0.03287835 -0.17331417 0.31195053 0.085768476 0.15865664 -0.16883424 0.20400134 -0.20781465 0.23383452 -0.35668093 0.38533893 -0.19143704 -0.10424147 0.011340859 -0.4032238 -0.26216048 -0.074205205 0.23515865 0.056679573 -0.045612194 -0.35666537 0.12355032 0.2981568 0.40892807 0.45134267 -0.0031722477 -0.6471965 0.13336541 -0.31981394 -0.12022159 -0.40074235 0.36565706 0.33446246 0.3278848 0.43702313 -0.22895214 0.106839046 0.081415065 0.13533588 -0.09320858 0.080338344 0.08916637 0.028845703 -0.5874789 0.22183912 -0.022186495 0.38569063 -0.18733035 0.27353963 0.21299379 0.26034555 -0.069386646 0.2542651 -0.23787977 -0.42808416 -0.27696502 0.14326873 -0.10184359 0.03277281 0.08635722 0.060537476 -0.10708692 0.030073265 0.1521655 -0.20179456 -0.20984377 0.49056977 0.21995543 -0.576775 0.18604068 0.20407534 -0.024871774 0.15720704 -0.21447562 0.27095062 0.5354161 0.33607304 -0.21295719 0.28356293 0.119344935 0.13007423 0.057339974 0.3372076 -0.23663811 0.45189685 -0.15812503 0.0055652037 -0.03794896 0.23924178 0.19007932 0.29562414 0.294777 -0.5909608 -0.7570834 0.010092179 -0.34757558 -0.147276 0.18927161 0.33016878 0.31375194 0.24679296 -0.24093726 0.25755638 -0.51027423 0.1699724 0.18753418 0.26036522 0.35657868 0.2481086 0.5477127 0.3036473 0.030337716 -0.021278597 0.2569656 0.32277006 0.16036971 0.3173771 0.22211464 0.1866136 0.25996616 0.31232622 -0.38789073 0.081608705 -0.10554743
7 0.10028206 -0.01407677 0.16531208 0.059932128 -0.026227117 -0.163115 0.23898624 -0.035847533 0.13992791 -0.15614949 0.11888769 -0.082246676 0.14433229 -0.26653612 0.29332787 -0.078435704 -0.11179879 0.025687885 -0.28109667 -0.20992438 -0.038318727 0.26685113 0.118728906 0.03263536 -0.26929626 0.19295193 0.3063218 0.35988334 0.41021085 -0.10014958 -0.61965793 0.031109078 -0.2098418 -0.12124938 -0.40947804 0.40713003 0.3282313 0.24318112 0.44699767 -0.19451116 0.042818047 0.15354425 0.0723072 -0.14290822 0.15261085 0.1588372 0.05462814 -0.69893116 0.15729006 -0.0072398456 0.425902 -0.10936748 0.27514082 0.18200964 0.15899725 -0.016802967 0.2386433 -0.2203344 -0.36030376 -0.27075773 0.16146632 -0.053305257 0.059664823 0.20353834 0.02965484 -0.12924105 0.083881244 0.15608665 -0.17220639 -0.18564531 0.5810461 0.2439677 -0.60105324 0.18093038 0.19479407 0.059699643 0.06379889 -0.115495995 0.2640725 0.57722884 0.38292783 -0.21339998 0.38997334 0.15122128 0.10631145 0.028189728 0.2843157 -0.36145246 0.40025625 -0.114822365 -0.055227235 -0.015722958 0.24630679 0.15953553 0.31212458 0.29000458 -0.56916344 -0.7836508 0.11898669 -0.40428343 -0.14239128 0.23404948 0.32314512 0.3146385 0.24685761 -0.21733682 0.28220773 -0.4755386 0.1902385 0.1829553 0.25363645 0.37372148 0.18601951 0.5663901 0.28061342 -0.07434415 0.009716502 0.23230278 0.37675732 0.2653819 0.36567965 0.22482425 0.12041059 0.3261812 0.331312 -0.5186121 -0.014027859 -0.16525137
32 0.044962786 -0.099688664 -0.118063524 0.20234849 0.028009878 0.19481148 -0.20991659 -0.21257795 -0.102680504 0.44240257 0.1646277 -0.43547034 0.040842302 0.013831046 -0.21900916 -0.24046534 0.021876004 -0.07009901 -0.3651701 -0.17641099 -0.016223432 0.3389074 0.12977429 0.30207196 -0.17522284 0.12482398 -0.32410172 -0.23709394 0.009793475 -0.2058291 -0.4516369 0.31238043 -0.20355909 -0.0015154904 0.11831401 -0.023827143 0.36002204 0.077293344 0.3308559 0.22052114 -0.085314594 -0.29554614 -0.035457727 -0.1699188 -0.1743975 0.03769146 -0.22683316 -0.12561037 -0.1021385 0.16369626 -0.11828645 0.12020143 0.35728735 0.16295256 -0.26836798 0.042563237 -0.009647394 -0.022847412 -0.22805382 0.29652908 0.27557993 -0.21317275 0.2738314 0.39678994 0.26986605 -0.19214801 -0.006270682 0.06445555 -0.14619954 -0.46348003 -0.038069412 0.07133589 -0.16633652 -0.008178254 0.063738495 -0.46797615 -0.39163586 0.08790657 -0.17060895 0.35808095 -0.090141706 -0.18702538 -0.046764057 0.21909401 -0.03959019 0.30130088 0.09921382 0.2795611 0.07515631 0.32958102 0.012478032 -0.0010382183 0.056850664 0.13625486 0.0876694 -0.049864043 -0.2346841 -0.30883107 -0.124669775 -0.11931157 0.016943647 -0.26639357 -0.22427954 0.12824258 -0.14588632 -0.28546813 0.09472702 0.137295 0.20285583 -0.029259782 -0.027051548 -0.095099315 0.59171855 0.08891831 -0.2453861 0.010908903 -0.23046324 0.48666647 0.16477239 0.16522995 0.12796177 -0.2532592 -0.08163187 0.39649123 0.04690204 -0.15372956 -0.030868107 0.13408355
5 0.13062046 0.073271774 0.21866974 -0.042362507 0.004268802 -0.17889927 0.19682163 0.0890047 0.20098938 -0.144266 0.10789101 -0.19131187 0.16981481 -0.16675867 0.34523067 -0.20468874 -0.18853347 0.18122704 -0.36453143 -0.21195407 0.041474983 0.16779849 0.12238864 -0.029220406 -0.42719975 0.06113834 0.27697763 0.4333199 0.34377015 0.100267924 -0.6277087 0.06570044 -0.32744446 -0.07640059 -0.43334317 0.31799194 0.3052528 0.44770065 0.5365357 -0.23793417 0.0143351825 0.20738572 0.07313354 -0.12837197 0.071610466 0.1900382 0.110216916 -0.67972994 0.2564801 0.0004936216 0.2828981 -0.24720977 0.22355098 0.2398862 0.25970042 0.09234038 0.063834034 -0.115941174 -0.4279891 -0.16897501 0.10898891 0.03671638 0.022410711 0.0917861 0.13575314 -0.13599737 -0.09194319 0.02051425 -0.12402963 -0.25166696 0.46865937 0.22343974 -0.5923352 0.08259264 0.14445226 -0.063822664 0.17837466 -0.13602208 0.15510103 0.6205632 0.46723667 -0.15154682 0.39235786 0.13031383 0.18265627 -0.05237779 0.33318934 -0.40245056 0.3898072 -0.25119665 -0.059287924 -0.12736265 0.11887867 0.18984991 0.36395544 0.24519475 -0.6020432 -0.68974125 -0.0021308935 -0.3840218 -0.26352587 0.11893044 0.37596855 0.3337786 0.042724714 -0.13715774 0.19142123 -0.4784615 0.13691387 0.110562794 0.11577449 0.2520874 0.18962537 0.5802276 0.14373739 0.04718053 -0.015200604 0.22463447 0.4023964 0.21822578 0.24604113 0.24004999 0.1588356 0.3599392 0.2989756 -0.4304018 0.045627218 -0.1802415
31 0.030412043 0.007115136 -0.068660736 0.23825037 0.087630205 0.07637617 -0.025050709 -0.038702726 -0.06315958 0.3624902 0.097239815 -0.27154398 -0.032310057 0.0068353866 -0.04895516 -0.27029523 0.16260917 0.084347844 -0.3215739 -0.012926921 -0.12192282 0.33679864 0.09707433 0.20828746 -0.09514212 0.12396325 -0.1864205 -0.054923505 -0.023121595 -0.18186016 -0.29097986 0.2599618 -0.1550157 -0.017979776 -0.043786995 -0.0939564 0.19425976 -0.013680491 0.22994693 0.26581156 -0.17444742 -0.104914255 0.021627998 -0.14818364 -0.09057892 0.04644678 -0.23142837 0.14631647 -0.056093145 0.24196221 -0.20504117 0.17858365 0.38433415 0.063458115 -0.2140216 0.13220616 -0.086198375 -0.06533606 0.006772314 0.28248566 0.23294796 -0.06748728 0.064306274 0.35275587 0.26156643 -0.22934964 -0.0316157 0.012142603 -0.1596835 -0.25942615 -0.036445837 0.14364825 -0.04065139 -0.09421512 0.115096815 -0.39226824 -0.25877145 0.29423675 -0.24948552 0.3611836 -0.10241898 -0.20232017 -0.11892574 0.13657077 -0.08871757 0.073197536 0.28920546 0.22185615 0.15365833 0.38425246 0.038187433 -0.17099586 -0.16462147 -0.00093047955 0.046838198 -0.03032493 -0.19654569 -0.42506993 -0.12343933 -0.117719635 -0.020941598 -0.35878494 -0.09353308 0.13410674 -0.100851834 -0.19517045 0.06834318 0.050927248 0.13565315 0.101147145 0.056702495 -0.024909005 0.4667332 0.11153367 -0.28602418 -0.04996209 -0.2865005 0.28579146 0.14323694 0.070286356 0.00822478 -0.18746287 0.018143706 0.29856268 0.046658043 -0.1129574 0.038843535 0.07316053
13 -0.0555073 -0.09643333 -0.10913451 0.17048551 0.19159485 -0.028108306 0.05559615 -0.02460611 -0.06842935 0.35779104 0.202168 -0.10543672 0.09575234 0.0030100637 0.03449688 -0.24797812 0.23886907 0.17011918 -0.16666256 -0.041126683 -0.08805106 0.368632 -0.003031313 0.07617544 -0.022044126 0.07322805 -0.13633522 -0.06580289 -0.07184129 -0.18580838 -0.341082 0.18292171 0.052757148 0.12539716 -0.056756526 0.020923272 0.20092571 0.017522423 0.14805278 0.20747364 -0.12521918 -0.09475517 -0.046679627 -0.14260402 -0.08918682 0.07849432 -0.2628219 0.12662986 0.030274926 0.36678883 -0.19519392 0.37216774 0.37331182 0.05095862 -0.15764609 0.04911475 -0.12692958 -0.081543975 0.08395539 0.29031143 0.30950695 -0.10496952 0.12046171 0.19477727 0.21192032 -0.17288116 -0.023908926 0.111824706 -0.15901949 -0.1997078 -0.008230103 0.06682243 0.065912165 -0.09076853 0.12434377 -0.344751 -0.18030919 0.18077077 -0.21844774 0.3196113 -0.066580705 -0.15821351 -0.20952767 0.29691735 -0.07545927 0.11554116 0.39058867 0.07443261 0.122505605 0.28985628 0.047941387 -0.0625698 -0.08646586 0.018818744 0.06795417 0.10973489 -0.23814115 -0.4720483 -0.13479064 -0.1600462 -0.08400446 -0.3832543 0.07575845 0.071907505 -0.12381099 -0.18867908 0.001811894 0.07957637 0.17271896 0.15247001 -0.0037120942 0.064232245 0.38856786 0.10979724 -0.41605842 -0.09314309 -0.24880186 0.22567064 -0.03756047 0.13301507 -0.10393799 -0.12758927 0.06515451 0.16203126 0.026812019 -0.05345683 0.0850386 0.2273165
18 -0.08768194 0.12745257 -0.05919278 0.1266129 0.2719313 -0.109922715 0.44229895 -0.02414769 -0.21602698 0.34038082 0.4005938 -0.21355565 0.18620202 -0.061491355 0.2185795 -0.12815723 0.2159107 0.14363554 0.00848184 0.2901293 0.020885503 0.44390327 -0.05281085 0.14537805 0.011032351 0.2165419 -0.08235304 0.18637721 -0.007496512 0.053856254 -0.37734154 0.097925134 0.089408204 -0.07183844 -0.17209233 -0.29093865 0.121472135 0.12528516 0.02783274 -0.045943573 0.06442602 0.08969459 -0.09692331 -0.0038953812 -0.006399514 0.25033712 -0.24064676 0.041183278 0.07928998 0.20970945 0.0127505 0.48807344 0.38698715 0.0050561754 -0.1362702 0.05362183 0.19620988 0.0809631 0.13068628 0.022431301 0.11007819 -0.27339512 0.18082109 -0.03159462 0.16961733 -0.29046884 0.051163938 -0.05426159 -0.008506404 0.039480317 -0.061429255 0.019879244 -0.022486767 0.11797836 -0.088650756 -0.1667615 -0.054751724 0.14511809 -0.27664208 0.32502568 0.018684024 -0.096142866 -0.35793355 0.34118754 0.072120406 0.08485542 0.39989707 -0.045369063 0.1807457 0.32071537 -0.19654465 -0.1881852 -0.26964253 0.027993517 -0.084831476 -0.06334715 -0.18718842 -0.21360289 -0.14120191 -0.1323567 -0.21078937 -0.37037814 0.15396242 0.15175544 0.014246286 -0.06207538 0.14894338 -0.12463932 -0.01727002 -0.0052143917 0.31996387 0.04480272 0.02404847 -0.12627879 -0.26949343 -0.04386862 -0.07346279 0.10816634 -0.075831674 0.15385805 -0.2104174 -0.10162865 0.17326246 0.113969766 -0.105893716 -0.35381052 -0.20870635 0.1334516
8 -0.0058361846 -0.056612227 0.029943505 0.17840923 0.08243538 -0.044882305 0.2712815 -0.06518806 -0.0837727 0.15908606 0.2025779 0.0118490355 0.03582561 0.009430612 0.0336114 -0.13844709 0.06291348 0.19222596 -0.040614963 0.0687147 0.052259192 0.35699382 -0.09945224 -0.07013308 -0.07084705 0.04596576 -0.17195837 0.056182887 -0.013133682 -0.043692105 -0.2526238 0.11699943 0.10845015 -0.015194854 -0.0010415695 -0.045335263 0.0843281 0.10125121 0.07043003 0.19520882 -0.17068419 0.07696866 -0.047228567 -0.08546301 0.13241602 0.18653865 -0.22744843 0.10318341 -0.04517656 0.40961784 -0.12057295 0.38726565 0.2802563 -0.117755994 -0.06296957 0.025586398 -0.016010348 -0.11457256 0.15381068 0.002698243 0.32705203 -0.2300591 -0.0060954858 0.11023718 0.11688382 -0.28781828 -0.031927634 0.17615905 -0.09863669 -0.08605832 -0.05038791 0.14218614 0.04893442 -0.03235794 0.12706128 -0.1844609 -0.091227226 0.26924494 -0.15064898 0.2528838 -0.019447101 -0.16533244 -0.22968619 0.31725076 0.008566313 -0.0038224012 0.49244544 -0.06776667 0.33087978 0.37666866 -0.017195867 -0.064666584 -0.27734572 -0.0040893955 0.08361833 0.13967238 -0.15058103 -0.45412162 -0.15281075 -0.16579673 -0.12558557 -0.34051394 0.16631985 -0.11272361 -0.2330418 -0.05721201 0.070969105 0.07104846 0.039968953 0.13650441 0.103018366 0.060566273 0.2412006 0.010754285 -0.32946414 -0.09864185 -0.12801214 0.25629783 -0.07999422 0.14739653 -0.05047931 0.032909054 0.033335038 0.12369077 -0.056955513 -0.07714841 -0.02568478 0.2057539
23 0.2837973 0.14649193 0.27087584 -0.09199779 0.21342793 -0.38685328 0.29106027 0.07719925 0.018359032 0.104637176 0.35795873 0.04589594 -0.034752186 0.20681468 0.43402967 0.17270485 0.3942091 0.06707956 -0.030190999 0.29315037 0.2622178 0.41453508 -0.03246804 -0.25720385 -0.34184247 0.3571467 -0.23948841 -0.09272958 0.18780203 -0.0016384477 -0.57036054 0.1423957 0.011302039 0.26703107 -0.3260682 -0.057231136 0.009325572 -0.049332794 -0.10874597 -0.0523006 -0.2424748 0.19307205 0.2893466 -0.11081864 -0.12204024 -0.11959962 -0.35349548 -0.09915434 -0.11454041 0.2318829 0.269151 -0.025862394 0.22305956 -0.086512856 -0.073621534 -0.0782674 0.18832497 0.046183456 -0.0053657154 -0.2543804 0.033820603 -0.05251775 -0.31265464 -0.2672473 0.17925663 -0.4058226 0.11146521 0.16015011 -0.037036546 0.055627916 0.10828764 0.3486528 -0.19909155 -0.20602168 0.02748636 0.03482662 -0.1256341 0.017578375 -0.4460879 0.16267586 -0.027173279 -0.3303144 -0.039050214 0.23704734 0.0428786 -0.43939778 0.26326936 -0.24788009 0.16274588 0.25092113 -0.17195442 -0.39284295 -0.53329986 -0.1627852 0.15361947 0.050415438 0.047551412 -0.31903553 0.0077221747 -0.2625518 0.2035643 -0.25428838 0.17861515 -0.1382727 0.00036117889 -0.12051026 0.22671278 0.14738134 0.083018064 0.19626772 0.05590511 0.21039927 0.11744128 -0.09435691 -0.26851195 0.11176932 -0.33129388 0.18640536 0.30068418 -0.059086543 -0.003309699 0.006320748 0.043219246 0.035381693 0.122015245 -0.012639298 -0.15467848 0.26333493
16 0.25705 0.026689135 0.07632784 -0.04368381 0.24489595 -0.18367563 0.26417398 0.091476 0.05566993 0.05968685 0.26357692 0.059644252 0.042110927 0.24186502 0.34606755 0.22152928 0.35041386 -0.028177274 -0.09986043 0.28002837 0.28998175 0.34000164 -0.04722045 -0.20677906 -0.2963526 0.35269427 -0.18007329 -0.162554 0.1655669 0.0468248 -0.5128223 0.027521903 0.10419668 0.31898388 -0.33888215 -0.009771535 0.042403497 -0.007849011 0.004269361 -0.071181506 -0.23152299 0.2077311 0.14953539 -0.12000165 -0.07292734 -0.09677923 -0.3522694 -0.08539611 -0.16496609 0.11643984 0.20006327 -0.025732184 0.3209087 -0.009979331 -0.011153965 -0.124144875 0.2919323 0.018308831 -0.021053206 -0.36829692 0.060545426 -0.1709927 -0.29306072 -0.17387362 0.18856452 -0.38684246 0.10094714 0.24518526 -0.1534463 -0.07220885 0.115117766 0.29295743 -0.16183743 -0.16017494 0.0029813193 0.08383624 -0.10172359 0.013046294 -0.4389568 0.09763101 -0.08924953 -0.3176807 -0.08657355 0.31190524 -0.0049213585 -0.3900039 0.27132505 -0.26169452 0.2558847 0.3274404 -0.1555527 -0.33391675 -0.5058306 -0.15519962 0.15794413 0.0009669922 -0.016705448 -0.24348775 0.089133784 -0.2855415 0.17975113 -0.33227828 0.14125857 -0.25241065 -0.035088487 -0.09214524 0.1258193 0.20556836 0.17239536 0.18160658 0.07063147 0.26367417 0.097039 -0.1421641 -0.22997107 0.1671737 -0.32825515 0.2173351 0.27137762 -0.011815545 0.02297398 -0.062264632 0.07779601 0.090504535 -0.026000068 -0.08946184 -0.14976776 0.26734912
20 0.06849033 0.016415846 -0.08585719 0.16200037 0.06675485 -0.14027493 0.30073124 -0.077649094 -0.10852897 0.27331316 0.33917168 -0.08481712 0.22940335 0.11398936 0.21360034 0.05803602 0.19523771 0.10957932 0.0851326 0.24908878 0.2091031 0.3821383 -0.1522635 -0.13630652 -0.20597862 0.17612928 -0.2905134 -0.05981324 0.08295666 -0.025034176 -0.41453668 0.106332324 0.10454309 0.06388007 -0.065458626 -0.06444971 0.03668907 0.07741706 -0.06764509 -0.0034043356 -0.12165495 0.13293876 -0.0025198718 -0.064141594 0.05389353 0.09428398 -0.30308288 -0.0676194 -0.057528038 0.31563517 0.13502914 0.23491253 0.24651532 -0.07764779 -0.10849537 -0.030711122 0.1125596 -0.00034696714 -0.01969843 -0.08302824 0.14680295 -0.24745022 0.0072241663 -0.01959841 0.19388884 -0.29058135 0.06926426 0.08832431 0.053439178 -0.1431981 -0.11161911 0.14534138 -0.096428074 -0.004916971 0.08531889 -0.08778001 -0.03128865 0.11608669 -0.26741177 0.21753043 -0.1048843 -0.11333367 -0.20706433 0.25276986 0.08525041 -0.12000469 0.3581682 -0.138718 0.26350048 0.27594766 -0.14799033 -0.21718416 -0.34795517 0.015822722 0.093502566 0.12050354 -0.042370327 -0.28935176 -0.049396805 -0.11084476 -0.063325524 -0.31782955 0.20258674 -0.19567564 -0.12930071 -0.036699947 0.08878209 0.14743352 0.046874475 0.12666892 0.11645014 0.11860056 0.16271956 -0.086521596 -0.2733635 0.096652806 -0.1171772 0.18811603 0.059419114 0.18828437 -0.024562867 -0.025570363 -0.005277267 0.045546647 0.024378018 -0.18673193 -0.18686213 0.2126811
25 0.36173677 -0.15305847 0.5227137 0.1186137 -0.129535 -0.4500895 -0.10540005 0.12911132 0.07030627 -0.38015178 0.72859406 0.27692074 -0.22181717 -0.5965082 0.34305272 0.07228504 0.004255674 -0.12659338 -0.15189748 0.038844857 0.16942784 0.3985798 0.3472469 -0.16161676 -0.47694352 0.32546514 -0.52486247 0.2459705 -0.0710456 -0.0114816185 -0.40487298 -0.097934596 -0.07023632 -0.11235736 0.0995476 -0.23672348 0.33216083 -0.25964588 0.5530392 0.1582454 0.13378061 0.068754956 0.1716703 -0.10985658 0.11048755 -0.12659675 0.42912868 -0.1895068 -0.032826707 0.20719466 0.56508833 -0.48959973 0.4240268 0.3186783 0.34246302 0.110852286 0.2960486 0.215523 -0.5468256 0.22880967 0.1415345 -0.46754542 0.08172052 0.1741727 0.19930439 -0.48975092 0.47331223 0.4451622 -0.039787434 -0.29007605 0.42805117 -0.16067566 -0.15294844 -0.31132323 -0.10407027 -0.25489768 0.055934884 -0.57485443 0.10718569 0.32143646 0.45521775 -0.48412648 0.020358754 0.8082489 0.116768286 0.52605605 0.16477169 0.21896178 0.30974755 0.4174586 -0.28751233 0.14153157 0.16428532 0.13265088 0.37745985 0.040234942 -0.08016138 -0.33702132 0.4271921 -0.49850154 -0.3542421 -0.33869976 0.6332982 0.17375107 -0.38154495 -0.47298244 0.59580785 0.18012711 0.012775454 -0.53975767 0.044091955 0.040360272 -0.075457044 0.42382133 -0.02941402 -0.10858281 -0.07993789 0.29548314 0.32288402 0.044432983 -0.5045796 -0.15143761 0.22200155 -0.1003764 -0.089721985 -0.44060078 0.076424375 -0.2928784
24 0.34481087 -0.15318201 0.47778112 0.11104712 -0.103663966 -0.4522208 -0.11480345 0.15181625 0.09124897 -0.3533401 0.7278987 0.2595366 -0.19524401 -0.56054735 0.33375835 0.07360686 0.0021320032 -0.11213394 -0.1499287 0.029877914 0.13769142 0.39895165 0.33340082 -0.17302762 -0.44931272 0.3265413 -0.4906382 0.27012596 -0.06600101 0.017354496 -0.43275547 -0.11476941 -0.06213754 -0.10430935 0.11127021 -0.22037517 0.29495594 -0.26219374 0.54233724 0.16910383 0.10914383 0.04877484 0.16396804 -0.113910474 0.10748445 -0.12523146 0.41397113 -0.1996709 -0.031070098 0.20898353 0.5450981 -0.46390912 0.42156586 0.32949117 0.36442006 0.08994576 0.30599567 0.20347051 -0.53918767 0.22500223 0.13181151 -0.44980407 0.09498428 0.15766807 0.20878711 -0.4881362 0.4956355 0.46959054 -0.06466661 -0.2741002 0.42302603 -0.17563602 -0.1619998 -0.33301777 -0.09468306 -0.291038 0.05052467 -0.5549387 0.06994545 0.3115744 0.45110488 -0.49064136 0.026940256 0.8218368 0.15377165 0.52397174 0.16792618 0.21018572 0.29863596 0.4348559 -0.2996554 0.13238357 0.1446388 0.1527013 0.3824005 0.052714102 -0.0846531 -0.363195 0.45461395 -0.5324362 -0.35023943 -0.3752983 0.6230539 0.1787617 -0.37573776 -0.4849776 0.587689 0.16112407 -0.0091022495 -0.5539354 0.053433243 0.07317076 -0.06986005 0.4423569 -0.014801572 -0.093814306 -0.11153521 0.2605898 0.31757054 0.045801606 -0.51495236 -0.14135124 0.2332079 -0.070861794 -0.06364755 -0.47410038 0.09984759 -0.28932878
27 0.17378713 0.3625363 0.5087231 -0.45191097 0.056893233 -0.5283967 -0.17032 0.38018337 -0.1141647 0.17117868 0.2802315 -0.1836557 -0.4430082 -0.24567384 0.0140747735 0.013541768 0.4186911 0.1372827 -0.11153827 0.59272134 0.10716599 -0.05297628 0.06896799 0.14035335 -0.48026854 0.12150165 -0.26676384 0.17689246 0.20256712 -0.32081518 -0.40944177 0.29689535 -0.48172158 -0.019494621 0.06474172 0.3656161 0.4500441 0.33174166 0.12526523 0.18010727 -0.12763225 0.15410301 0.270111 -0.115016244 0.055954054 0.13296917 0.36569527 -0.41728404 -0.468388 0.12177896 0.11672696 0.122128844 0.6551074 0.08721128 0.52061236 -0.04689532 0.3991751 0.34560278 0.00865752 -0.55628026 0.26209563 -0.15114917 0.12736095 -0.19938277 0.49415383 -0.08900531 0.10256601 0.11918558 -0.40740436 -0.3686649 0.34499702 -0.16725335 -0.22285062 -0.10113987 0.045165226 -0.24899504 -0.3748992 -0.3926754 -0.20802449 0.37528095 0.1982903 -0.52931535 0.05665501 -0.03671537 0.35950497 0.26785338 0.24312645 -0.12796746 0.24193119 0.34430644 -0.27970266 -0.08381244 0.29746267 0.22722456 -0.07936709 0.4650208 -0.35720634 -0.52399987 0.4418627 -0.5360661 -0.4858238 -0.013623846 -0.120865956 -0.013110157 0.2229306 -0.19797692 -0.08130892 -0.26888335 -0.36665362 -0.40347287 -0.20385416 0.08188793 0.27432093 -0.17514008 0.3609222 -0.4206225 0.29278567 0.31113747 0.17894693 0.06338055 0.07938526 -0.19688892 -0.26935667 -0.13106048 -0.05837386 -0.2767677 0.46888644 0.16352263
19 0.22838281 0.29769012 0.58721447 -0.44394445 0.1015085 -0.5306998 -0.17803015 0.36504555 -0.05122157 0.13445081 0.23858574 -0.18094543 -0.4225035 -0.25388637 0.06393158 -0.054022346 0.37267497 0.12953717 -0.031796485 0.6306619 0.20177889 -0.07168495 0.059015173 0.0859903 -0.48920652 0.2359915 -0.2983422 0.23871478 0.30407223 -0.29050195 -0.41060865 0.36717674 -0.4435677 0.0702466 0.12082284 0.32817808 0.4699811 0.31513196 0.13798104 0.23885043 -0.22816569 0.16435447 0.16148198 -0.078576416 0.22739437 0.103242055 0.3554711 -0.372979 -0.4995901 0.15932134 -0.0057498366 0.112717494 0.56792367 0.18709709 0.5009735 0.069855206 0.28920734 0.3678302 -0.04732734 -0.49632382 0.15004872 -0.19872987 0.25818732 -0.081285276 0.48204362 -0.0049868077 0.20361497 0.06349536 -0.3504468 -0.30947846 0.29681656 -0.14852358 -0.24839851 -0.07922012 0.114743985 -0.20136155 -0.32003656 -0.38799497 -0.106507726 0.2684394 0.10287039 -0.5358492 0.04340059 0.025262387 0.2520002 0.1712469 0.23439832 -0.104329124 0.285448 0.2884457 -0.24109715 -0.15092765 0.23700014 0.19379336 0.017978545 0.45130396 -0.4279076 -0.55602616 0.44086057 -0.4519681 -0.6358851 0.025202576 -0.085164994 0.0029678692 0.1980966 -0.12995274 -0.06939536 -0.47841203 -0.43552357 -0.38796857 -0.30945402 0.04405475 0.23394655 -0.23334771 0.31445244 -0.39875346 0.3824666 0.31270313 0.1969116 0.13409534 0.11072627 -0.25776002 -0.27552253 -0.04672314 -0.10806966 -0.33871585 0.4685306 0.27923748
30 0.15884978 -0.17356665 0.041895084 0.08857821 0.13974665 0.16180837 -0.17989059 0.04609597 0.032937456 0.07921556 -0.14084242 -0.28870785 -0.11409707 -0.09019252 -0.2119087 -0.36639336 0.11099521 0.1970078 -0.35390562 -0.096459 -0.023220597 0.26829773 0.4027022 0.19664763 -0.010975744 0.17071618 -0.14429341 -0.09993847 0.13546017 -0.15876617 -0.27328986 0.34421602 -0.16775015 0.13515526 -0.07785202 -0.20846358 0.2917799 -0.071566455 0.16048934 0.41022024 -0.053804316 -0.105072506 0.04249261 -0.20841901 -0.17011796 -0.03981331 -0.14434579 -0.06449299 -0.041430544 0.061077025 -0.20274086 0.107089154 0.48446795 0.3361218 -0.225343 0.2165846 -0.06086461 -0.12953722 -0.06679202 0.17712593 0.51620054 -0.22377369 0.32131127 0.5145273 0.2267599 -0.28012303 0.04297183 0.049084857 -0.1512885 -0.37463543 0.044238687 0.03335704 -0.08628572 0.008740984 0.07822814 -0.4415456 -0.26938158 0.18618794 -0.30787674 0.31658202 -0.008370113 -0.13872425 -0.06520222 0.048424765 0.046203796 0.33298668 0.28290042 0.30772045 0.12416802 0.6686832 0.06835625 -0.0425866 -0.05326115 -0.025007214 0.1922555 0.017916813 -0.25758573 -0.46561208 -0.095727496 -0.122531906 0.14664838 -0.38118547 -0.123973854 0.09003381 -0.04674829 -0.26692164 -0.15014772 0.06744552 0.2898763 0.04291979 0.07381532 -0.095149726 0.58894175 0.30412266 -0.19929904 -0.04624726 -0.1763016 0.23453668 0.2549931 0.087919526 -0.036924507 -0.2735009 -0.015454979 0.3846218 0.075181074 -0.19793858 -0.12050562 0.08564093
28 0.014046496 -0.10185339 0.007504526 0.17095862 0.12007503 0.21878427 -0.1669644 -0.23765333 -0.19500798 0.40512612 0.23888724 -0.3890754 0.058475237 0.124612235 -0.14893068 -0.32259458 0.038031094 -0.08664032 -0.40018052 -0.14848417 -0.002156622 0.27182657 0.03715243 0.20657913 -0.3166649 0.20108716 -0.3584816 -0.18381426 -0.013018106 -0.2602262 -0.47785008 0.39358258 -0.21796279 0.05685045 0.13161406 -0.16838016 0.2781618 0.11159027 0.2696107 0.22646873 -0.09811089 -0.24767372 -0.10226633 -0.16001587 -0.17748238 0.015347192 -0.16684781 -0.18467887 -0.06372781 0.20516095 -0.084624164 0.19558579 0.39069816 0.26040915 -0.35159075 0.017262995 -0.06730147 -0.019489603 -0.23948562 0.37798634 0.41216677 -0.3055888 0.32324615 0.51664215 0.2100834 -0.11031587 -0.0636337 0.14300705 -0.1344861 -0.49130037 -0.072213896 -0.0054294574 -0.12944959 -0.101271495 0.21163067 -0.36908096 -0.37676358 -0.067823984 -0.18101756 0.2856005 -0.10650544 -0.22015521 0.070040114 0.18507874 -0.09217267 0.2164628 0.043206032 0.24064928 0.02572952 0.23006359 -0.082333356 0.004723011 0.005972137 0.16930273 -0.00853568 -0.04047963 -0.17197244 -0.31151465 -0.10855167 -0.1649013 -0.029739622 -0.26673287 -0.21295677 0.13545574 -0.17790183 -0.20852083 0.08002735 0.060850516 0.3481598 -0.004016273 -0.049506404 -0.018606 0.6818626 0.05597417 -0.1819619 0.010955498 -0.24260223 0.44172522 0.23221643 0.1391785 0.17009962 -0.19158089 0.046929788 0.44735864 -0.0037474511 -0.095528394 0.050953887 0.067874014
11 0.19043377 0.060145896 0.25156498 0.010882031 -0.009963294 -0.21562134 0.3449625 -0.008533076 0.32375816 -0.20901261 0.17872602 -0.23012516 0.29274303 -0.34639895 0.37188837 -0.1320927 -0.1935349 0.1700724 -0.50764966 -0.16625482 0.004883293 0.28913626 0.18063645 -0.040908165 -0.5004775 0.06167575 0.35535058 0.5348913 0.3636033 0.08674796 -0.7127114 0.0064727217 -0.33581525 -0.072717756 -0.5649691 0.4224329 0.48863298 0.5341123 0.6911962 -0.20421316 -0.022585202 0.13333167 0.19769396 -0.24754782 0.10467333 0.19405502 0.16657746 -0.83002895 0.23174897 0.07295339 0.33854368 -0.2172386 0.16252291 0.18185498 0.06406555 0.092178464 0.14710166 -0.17880602 -0.3383098 -0.11047218 0.074260555 0.021996662 -0.033876676 0.018638864 0.06281313 -0.12580112 -0.04901915 -0.04243769 -0.22659524 -0.14663795 0.4567781 0.12275497 -0.50004995 0.1459297 0.17345399 -0.14073361 0.1656909 -0.15035132 0.1396483 0.5802624 0.4098111 -0.085984275 0.33347273 0.13850254 0.057821143 0.06598803 0.20603278 -0.32199407 0.37348554 -0.16853978 -0.1067082 -0.14415273 0.12991932 0.17165616 0.26281172 0.26811734 -0.49108 -0.5518488 -0.057598513 -0.33502012 -0.2452783 0.056547776 0.31117338 0.28745577 0.04887043 -0.12832282 0.24006966 -0.3766928 0.058780618 0.094174735 0.051981874 0.3168115 0.21657136 0.47823542 0.21285646 -0.08550916 -0.006649733 0.14015368 0.30886057 0.14862905 0.28977278 0.19157381 0.056377497 0.39494205 0.33786097 -0.42572892 0.0058883918 -0.14534791
12 -0.12633336 0.23511365 -0.038644493 0.06191814 0.18083005 -0.050174866 0.24738763 0.035934728 -0.17410925 0.38621086 0.3047878 -0.23155735 0.0962849 -0.18707079 0.1309957 -0.10894772 0.30078873 0.2947557 -0.015684089 0.26513803 0.013893822 0.47370395 -0.06623568 0.011232303 -0.10996714 0.09193905 -0.2037149 0.08499176 -0.099653855 0.059063703 -0.37397677 0.09591216 0.012173245 -0.1819649 -0.20624675 -0.29742506 0.11805623 -0.028242579 -0.047281634 -0.12800157 0.09410516 0.13362883 -0.12899543 -0.049773626 -0.093336105 0.23594825 -0.3098956 -0.08591386 -0.101365075 0.2593291 0.2046887 0.5660426 0.4291678 -0.035912696 -0.05166343 -0.011494992 0.25606072 0.14315224 0.15846255 0.108694404 0.021277208 -0.23481342 0.13922985 -0.07278261 0.083327554 -0.34741253 0.04491251 -0.02673234 0.0047784825 0.13789707 -0.11267536 0.16181394 -0.08915469 0.23094478 -0.11770931 -0.2760384 -0.095858134 0.15799265 -0.30899373 0.3503681 0.06826799 -0.05674609 -0.2572776 0.30970424 0.1737664 0.0628527 0.5007985 0.021302087 0.17070124 0.30492866 -0.25133142 -0.23741332 -0.41762406 0.0015941783 -0.014058745 -0.06441234 -0.084649526 -0.2153039 -0.25805566 -0.11380956 -0.1315234 -0.29310372 0.17190029 0.19870736 0.12543568 -0.0962738 0.18838656 -0.16171688 -0.109147966 -0.0516621 0.3624446 0.033344977 -0.071114466 0.057929516 -0.3215949 0.03418441 0.0066470955 0.010593498 -0.06719363 0.2863057 -0.21971738 -0.10649881 0.25962523 0.022147292 0.113500424 -0.41095498 -0.16440164 0.16337132
22 -0.048026025 0.027512928 -0.14796887 0.15415499 0.15526499 -0.04024331 0.344396 -0.1609087 -0.13960278 0.29347584 0.31713292 -0.10767001 0.20691317 0.013522769 0.15052071 -0.0016249589 0.2327575 0.1561444 0.031363092 0.22128525 0.1570158 0.39977273 -0.13091183 -0.082808666 -0.11580961 0.097586155 -0.24319835 -0.017385857 0.006862635 -0.08840019 -0.31293574 0.028742462 0.07810205 -0.03792934 -0.043021996 -0.06583883 -0.0056023444 0.040053215 -0.054512057 0.084752925 -0.091359906 0.06164985 -0.09771242 -0.10533234 0.034059666 0.24126023 -0.23423995 -0.051053796 -0.062344324 0.3402123 0.043524273 0.4525114 0.3649824 -0.08744226 -0.13514146 0.007909405 0.09813827 -0.003914646 0.07238057 -0.0036002416 0.25780332 -0.27051565 0.07895773 0.08563823 0.19161405 -0.3131658 0.10553163 0.115954325 -0.011847352 -0.080679156 -0.13320427 0.065330505 -0.0327347 0.08444984 0.10957038 -0.17172943 -0.089372784 0.18901978 -0.21955624 0.28502494 0.033169735 -0.07720082 -0.2878739 0.35949802 0.12640586 0.060560293 0.36089617 -0.09719771 0.25052428 0.22301888 -0.09921031 -0.15436022 -0.28278357 0.060899712 0.0691127 0.08584856 -0.09526455 -0.3244582 -0.2178557 -0.153302 -0.10571234 -0.37121427 0.2009203 -0.050934903 -0.06075564 -0.06781535 0.09789639 0.0035201788 0.08973057 0.030178381 0.15466507 0.063714035 0.18738274 -0.056900308 -0.26617882 -0.0014230452 -0.08695758 0.14139664 -0.07996827 0.21219805 -0.08171828 0.06768794 0.062186558 0.1124689 -0.022848269 -0.21349911 -0.12919487 0.16196859
29 0.065113075 -0.09505545 0.13025887 0.029955637 0.044263072 -0.2997989 0.38579342 -0.0020707063 -0.013360416 0.39439616 0.46176502 -0.03753658 0.10087922 0.06122423 0.13530971 -0.055745184 0.12069017 0.18752645 0.13542387 0.10015607 0.18409923 0.29587042 -0.23744997 -0.0023852666 -0.14013132 0.09689059 -0.31276292 0.055304047 0.255114 0.16307057 -0.49980596 0.36163995 0.22415008 0.07873975 0.0028144014 0.038910653 0.31493342 0.060156394 0.16859095 0.0062052584 0.14303258 0.29350972 0.045385107 -0.12835161 -0.1151602 0.11600874 -0.48061714 -0.078045055 0.032998558 0.12976773 0.25973192 0.02963161 0.028944205 -0.16588303 0.008938802 -0.12513964 -0.08103033 0.014678417 -0.021026462 -0.07656151 0.11493295 -0.25698417 -0.06837525 -0.08136265 0.023452515 -0.36831656 -0.12739186 0.05710877 0.011807018 -0.06426187 -0.11110176 0.12901442 -0.16052537 -0.035191882 -0.07761567 -0.24433768 -0.044733223 0.02732264 -0.23811488 0.15543996 -0.114931285 -0.21908106 -0.21170461 0.23505005 0.2756786 -0.16051823 0.46760473 -0.21579081 0.2804103 0.46084708 -0.15815894 -0.023820143 -0.37849095 0.022160621 0.16413718 -0.09251305 -0.12715925 -0.40638447 0.0077114133 -0.03046937 -0.018918907 -0.08082691 0.15523025 -0.3472425 -0.12389008 -0.027100472 0.008037998 0.22833346 0.15786415 0.1339952 0.17397393 0.13004883 0.069612056 -0.2455243 -0.2606219 0.079272695 -0.069899365 0.36011356 -0.09766356 0.06964233 -0.013810271 -0.10121703 -0.107440844 0.07853627 -0.13799758 -0.009301177 -0.092309564 0.18008703
